digraph Tree {
node [shape=box, style="filled, rounded", color="black", fontname=helvetica] ;
edge [fontname=helvetica] ;
0 [label=<age &le; 45.0<br/>gini = 0.49<br/>samples = 42<br/>value = [5, 3, 5, 29]<br/>class = 3>, fillcolor="#d739e5a5"] ;
1 [label=<age &le; 32.5<br/>gini = 0.344<br/>samples = 34<br/>value = [2, 0, 5, 27]<br/>class = 3>, fillcolor="#d739e5c1"] ;
0 -> 1 [labeldistance=2.5, labelangle=45, headlabel="True"] ;
2 [label=<age &le; 24.0<br/>gini = 0.255<br/>samples = 28<br/>value = [2, 0, 2, 24]<br/>class = 3>, fillcolor="#d739e5d8"] ;
1 -> 2 ;
3 [label=<age &le; 22.5<br/>gini = 0.37<br/>samples = 18<br/>value = [2, 0, 2, 14]<br/>class = 3>, fillcolor="#d739e5bf"] ;
2 -> 3 ;
4 [label=<price &le; 31.085<br/>gini = 0.304<br/>samples = 17<br/>value = [2, 0, 1, 14]<br/>class = 3>, fillcolor="#d739e5cc"] ;
3 -> 4 ;
5 [label=<gini = 0.0<br/>samples = 11<br/>value = [0, 0, 0, 11]<br/>class = 3>, fillcolor="#d739e5ff"] ;
4 -> 5 ;
6 [label=<prev_purchases_in_usd &le; 9.995<br/>gini = 0.611<br/>samples = 6<br/>value = [2, 0, 1, 3]<br/>class = 3>, fillcolor="#d739e540"] ;
4 -> 6 ;
7 [label=<uses_whishlist &le; 0.5<br/>gini = 0.5<br/>samples = 2<br/>value = [1, 0, 1, 0]<br/>class = 0>, fillcolor="#e5813900"] ;
6 -> 7 ;
8 [label=<gini = 0.0<br/>samples = 1<br/>value = [1, 0, 0, 0]<br/>class = 0>, fillcolor="#e58139ff"] ;
7 -> 8 ;
9 [label=<gini = 0.0<br/>samples = 1<br/>value = [0, 0, 1, 0]<br/>class = 2>, fillcolor="#399de5ff"] ;
7 -> 9 ;
10 [label=<price &le; 46.245<br/>gini = 0.375<br/>samples = 4<br/>value = [1, 0, 0, 3]<br/>class = 3>, fillcolor="#d739e5aa"] ;
6 -> 10 ;
11 [label=<gini = 0.0<br/>samples = 2<br/>value = [0, 0, 0, 2]<br/>class = 3>, fillcolor="#d739e5ff"] ;
10 -> 11 ;
12 [label=<price &le; 59.245<br/>gini = 0.5<br/>samples = 2<br/>value = [1, 0, 0, 1]<br/>class = 0>, fillcolor="#e5813900"] ;
10 -> 12 ;
13 [label=<gini = 0.0<br/>samples = 1<br/>value = [1, 0, 0, 0]<br/>class = 0>, fillcolor="#e58139ff"] ;
12 -> 13 ;
14 [label=<gini = 0.0<br/>samples = 1<br/>value = [0, 0, 0, 1]<br/>class = 3>, fillcolor="#d739e5ff"] ;
12 -> 14 ;
15 [label=<gini = 0.0<br/>samples = 1<br/>value = [0, 0, 1, 0]<br/>class = 2>, fillcolor="#399de5ff"] ;
3 -> 15 ;
16 [label=<gini = 0.0<br/>samples = 10<br/>value = [0, 0, 0, 10]<br/>class = 3>, fillcolor="#d739e5ff"] ;
2 -> 16 ;
17 [label=<age &le; 39.5<br/>gini = 0.5<br/>samples = 6<br/>value = [0, 0, 3, 3]<br/>class = 2>, fillcolor="#399de500"] ;
1 -> 17 ;
18 [label=<prev_purchases_in_usd &le; 1012.22<br/>gini = 0.48<br/>samples = 5<br/>value = [0, 0, 3, 2]<br/>class = 2>, fillcolor="#399de555"] ;
17 -> 18 ;
19 [label=<gini = 0.0<br/>samples = 2<br/>value = [0, 0, 2, 0]<br/>class = 2>, fillcolor="#399de5ff"] ;
18 -> 19 ;
20 [label=<prev_purchases_in_usd &le; 1179.0<br/>gini = 0.444<br/>samples = 3<br/>value = [0, 0, 1, 2]<br/>class = 3>, fillcolor="#d739e57f"] ;
18 -> 20 ;
21 [label=<gini = 0.5<br/>samples = 2<br/>value = [0, 0, 1, 1]<br/>class = 2>, fillcolor="#399de500"] ;
20 -> 21 ;
22 [label=<gini = 0.0<br/>samples = 1<br/>value = [0, 0, 0, 1]<br/>class = 3>, fillcolor="#d739e5ff"] ;
20 -> 22 ;
23 [label=<gini = 0.0<br/>samples = 1<br/>value = [0, 0, 0, 1]<br/>class = 3>, fillcolor="#d739e5ff"] ;
17 -> 23 ;
24 [label=<prev_purchases_in_usd &le; 187.75<br/>gini = 0.656<br/>samples = 8<br/>value = [3, 3, 0, 2]<br/>class = 0>, fillcolor="#e5813900"] ;
0 -> 24 [labeldistance=2.5, labelangle=-45, headlabel="False"] ;
25 [label=<price &le; 63.11<br/>gini = 0.5<br/>samples = 4<br/>value = [2, 2, 0, 0]<br/>class = 0>, fillcolor="#e5813900"] ;
24 -> 25 ;
26 [label=<prev_purchases_in_usd &le; 151.88<br/>gini = 0.444<br/>samples = 3<br/>value = [2, 1, 0, 0]<br/>class = 0>, fillcolor="#e581397f"] ;
25 -> 26 ;
27 [label=<gini = 0.0<br/>samples = 1<br/>value = [0, 1, 0, 0]<br/>class = 1>, fillcolor="#47e539ff"] ;
26 -> 27 ;
28 [label=<gini = 0.0<br/>samples = 2<br/>value = [2, 0, 0, 0]<br/>class = 0>, fillcolor="#e58139ff"] ;
26 -> 28 ;
29 [label=<gini = 0.0<br/>samples = 1<br/>value = [0, 1, 0, 0]<br/>class = 1>, fillcolor="#47e539ff"] ;
25 -> 29 ;
30 [label=<price &le; 46.245<br/>gini = 0.625<br/>samples = 4<br/>value = [1, 1, 0, 2]<br/>class = 3>, fillcolor="#d739e555"] ;
24 -> 30 ;
31 [label=<gini = 0.0<br/>samples = 1<br/>value = [0, 1, 0, 0]<br/>class = 1>, fillcolor="#47e539ff"] ;
30 -> 31 ;
32 [label=<price &le; 94.99<br/>gini = 0.444<br/>samples = 3<br/>value = [1, 0, 0, 2]<br/>class = 3>, fillcolor="#d739e57f"] ;
30 -> 32 ;
33 [label=<gini = 0.0<br/>samples = 2<br/>value = [0, 0, 0, 2]<br/>class = 3>, fillcolor="#d739e5ff"] ;
32 -> 33 ;
34 [label=<gini = 0.0<br/>samples = 1<br/>value = [1, 0, 0, 0]<br/>class = 0>, fillcolor="#e58139ff"] ;
32 -> 34 ;
}